
\data\
ngram 1=36
ngram 2=72

\1-grams:
-0.9006416	</s>
-99	<s>	-7.982888
-1.887069	あ	-99
-1.299156	い	-99
-1.59732	う	-7.474919
-1.887069	お	-99
-1.053252	か	-99
-1.575043	が	-7.45898
-1.89835	く	-99
-1.95962	け	-99
-1.95962	こ	-99
-1.876073	さ	-99
-1.206292	し	-7.710021
-1.887069	じ	-99
-1.058178	す	-7.382198
-1.934065	ぜ	-99
-1.421229	た	-7.5908
-1.876073	だ	-99
-1.934065	ち	-99
-1.876073	っ	-99
-1.934065	つ	-99
-1.421229	で	-99
-1.608902	ど	-99
-1.413675	な	-9.180485
-1.876073	ね	-99
-1.95962	の	-99
-1.934065	ひ	-99
-1.95962	ほ	-99
-1.614811	ま	-8.616915
-1.934065	ゃ	-99
-1.425055	よ	-7.862171
-1.887069	ら	-99
-1.586039	り	-99
-1.608902	れ	-99
-1.89835	わ	-99
-1.299156	ん	-8.787794

\2-grams:
-0.9864272	<s> お
-1.033424	<s> か
-0.9754318	<s> が
-0.9754318	<s> さ
-0.9864272	<s> し
-0.9977082	<s> た
-1.033424	<s> つ
-0.964708	<s> ど
-1.058978	<s> ほ
-0.9977082	<s> よ
0	あ </s>
-0.2924862	い </s>
-0.6349089	い ち
-0.5879123	い な
-0.2680297	う し
-0.3367456	う よ
0	お か
-0.8120978	か </s>
-0.833817	か し
-0.8808136	か ぜ
-0.532787	か り
-0.8808136	か れ
-0.845098	か ん
-0.30103	が っ
-0.30103	が で
0	く わ
0	け ど
0	こ し
0	さ す
-0.680777	し い
-0.391028	し た
-0.7533277	し で
-0.680777	し ん
0	じ ら
-0.8401722	す </s>
-0.5223287	す か
-0.8178958	す が
-0.9014418	す け
-0.9014418	す こ
-0.8178958	す ね
0	ぜ ひ
-0.5128368	た </s>
-0.4771213	た す
-0.444121	た ん
0	だ よ
0	ち ゃ
0	っ か
0	つ か
0	で す
-0.3507178	ど </s>
-0.2564479	ど う
-0.4733934	な あ
-0.1779673	な い
0	ね </s>
0	の す
0	ひ い
0	ほ ん
-0.3192548	ま し
-0.2835393	ま す
0	ゃ う
-0.1780172	よ </s>
-0.4732949	よ く
0	ら れ
-0.2900346	り だ
-0.312311	り ま
-0.2781671	れ な
-0.3251637	れ ま
0	わ か
-0.5879123	ん じ
-0.5661931	ん で
-0.5991933	ん な
-0.660463	ん の

\end\
